<?xml version="1.0"?>
<opencv_storage>
<cascade>
  <stageType>BOOST</stageType>
  <featureType>HAAR</featureType>
  <height>60</height>
  <width>30</width>
  <stageParams>
    <boostType>GAB</boostType>
    <minHitRate>9.9500000476837158e-01</minHitRate>
    <maxFalseAlarm>5.0000000000000000e-01</maxFalseAlarm>
    <weightTrimRate>9.4999999999999996e-01</weightTrimRate>
    <maxDepth>1</maxDepth>
    <maxWeakCount>100</maxWeakCount></stageParams>
  <featureParams>
    <maxCatCount>0</maxCatCount>
    <featSize>1</featSize>
    <mode>ALL</mode></featureParams>
  <stageNum>8</stageNum>
  <stages>
    <!-- stage 0 -->
    <_>
      <maxWeakCount>1</maxWeakCount>
      <stageThreshold>1.</stageThreshold>
      <weakClassifiers>
        <_>
          <internalNodes>
            0 -1 5 1.8195442855358124e-01</internalNodes>
          <leafValues>
            -1. 1.</leafValues></_></weakClassifiers></_>
    <!-- stage 1 -->
    <_>
      <maxWeakCount>2</maxWeakCount>
      <stageThreshold>-9.9572557955980301e-03</stageThreshold>
      <weakClassifiers>
        <_>
          <internalNodes>
            0 -1 0 -7.3181137442588806e-02</internalNodes>
          <leafValues>
            9.7938144207000732e-01 -9.9000000953674316e-01</leafValues></_>
        <_>
          <internalNodes>
            0 -1 9 4.7183968126773834e-02</internalNodes>
          <leafValues>
            -9.5192289352416992e-01 9.8004275560379028e-01</leafValues></_></weakClassifiers></_>
    <!-- stage 2 -->
    <_>
      <maxWeakCount>2</maxWeakCount>
      <stageThreshold>-1.1116672307252884e-01</stageThreshold>
      <weakClassifiers>
        <_>
          <internalNodes>
            0 -1 1 -2.2550585865974426e-01</internalNodes>
          <leafValues>
            9.3406593799591064e-01 -9.1262137889862061e-01</leafValues></_>
        <_>
          <internalNodes>
            0 -1 11 -1.9071227312088013e-01</internalNodes>
          <leafValues>
            8.0145466327667236e-01 -9.4322848320007324e-01</leafValues></_></weakClassifiers></_>
    <!-- stage 3 -->
    <_>
      <maxWeakCount>2</maxWeakCount>
      <stageThreshold>-1.6358360648155212e-01</stageThreshold>
      <weakClassifiers>
        <_>
          <internalNodes>
            0 -1 4 5.0082709640264511e-03</internalNodes>
          <leafValues>
            -9.4818651676177979e-01 7.6923078298568726e-01</leafValues></_>
        <_>
          <internalNodes>
            0 -1 16 6.9764703512191772e-03</internalNodes>
          <leafValues>
            -9.3281435966491699e-01 8.1203728914260864e-01</leafValues></_></weakClassifiers></_>
    <!-- stage 4 -->
    <_>
      <maxWeakCount>3</maxWeakCount>
      <stageThreshold>-9.5324796438217163e-01</stageThreshold>
      <weakClassifiers>
        <_>
          <internalNodes>
            0 -1 6 3.0778568983078003e-01</internalNodes>
          <leafValues>
            -9.0243899822235107e-01 8.9130437374114990e-01</leafValues></_>
        <_>
          <internalNodes>
            0 -1 2 -4.1155524551868439e-02</internalNodes>
          <leafValues>
            7.9011374711990356e-01 -7.5575405359268188e-01</leafValues></_>
        <_>
          <internalNodes>
            0 -1 15 2.2756264661438763e-04</internalNodes>
          <leafValues>
            -8.3811599016189575e-01 7.0494514703750610e-01</leafValues></_></weakClassifiers></_>
    <!-- stage 5 -->
    <_>
      <maxWeakCount>3</maxWeakCount>
      <stageThreshold>-9.8443323373794556e-01</stageThreshold>
      <weakClassifiers>
        <_>
          <internalNodes>
            0 -1 7 2.0135205984115601e-01</internalNodes>
          <leafValues>
            -8.8292682170867920e-01 8.4782606363296509e-01</leafValues></_>
        <_>
          <internalNodes>
            0 -1 13 6.3920901156961918e-03</internalNodes>
          <leafValues>
            -7.6615071296691895e-01 8.0455476045608521e-01</leafValues></_>
        <_>
          <internalNodes>
            0 -1 17 -1.8897693604230881e-02</internalNodes>
          <leafValues>
            6.6464430093765259e-01 -8.1038475036621094e-01</leafValues></_></weakClassifiers></_>
    <!-- stage 6 -->
    <_>
      <maxWeakCount>3</maxWeakCount>
      <stageThreshold>-1.0336189270019531e+00</stageThreshold>
      <weakClassifiers>
        <_>
          <internalNodes>
            0 -1 3 -5.8427631855010986e-02</internalNodes>
          <leafValues>
            8.7096774578094482e-01 -9.0196079015731812e-01</leafValues></_>
        <_>
          <internalNodes>
            0 -1 12 -1.8955457210540771e-01</internalNodes>
          <leafValues>
            8.6949634552001953e-01 -8.2184451818466187e-01</leafValues></_>
        <_>
          <internalNodes>
            0 -1 14 -3.7977467291057110e-03</internalNodes>
          <leafValues>
            -9.7430974245071411e-01 6.9018638134002686e-01</leafValues></_></weakClassifiers></_>
    <!-- stage 7 -->
    <_>
      <maxWeakCount>2</maxWeakCount>
      <stageThreshold>-2.8903478384017944e-01</stageThreshold>
      <weakClassifiers>
        <_>
          <internalNodes>
            0 -1 10 4.3000891804695129e-02</internalNodes>
          <leafValues>
            -9.7777777910232544e-01 6.2393164634704590e-01</leafValues></_>
        <_>
          <internalNodes>
            0 -1 8 -3.7367197219282389e-03</internalNodes>
          <leafValues>
            6.8874299526214600e-01 -8.9695030450820923e-01</leafValues></_></weakClassifiers></_></stages>
  <features>
    <_>
      <rects>
        <_>
          0 5 30 11 -1.</_>
        <_>
          10 5 10 11 3.</_></rects>
      <tilted>0</tilted></_>
    <_>
      <rects>
        <_>
          0 41 30 18 -1.</_>
        <_>
          10 47 10 6 9.</_></rects>
      <tilted>0</tilted></_>
    <_>
      <rects>
        <_>
          3 11 9 16 -1.</_>
        <_>
          6 11 3 16 3.</_></rects>
      <tilted>0</tilted></_>
    <_>
      <rects>
        <_>
          5 4 4 56 -1.</_>
        <_>
          5 18 4 28 2.</_></rects>
      <tilted>0</tilted></_>
    <_>
      <rects>
        <_>
          5 51 9 6 -1.</_>
        <_>
          5 54 9 3 2.</_></rects>
      <tilted>0</tilted></_>
    <_>
      <rects>
        <_>
          6 8 18 41 -1.</_>
        <_>
          12 8 6 41 3.</_></rects>
      <tilted>0</tilted></_>
    <_>
      <rects>
        <_>
          6 15 18 32 -1.</_>
        <_>
          12 15 6 32 3.</_></rects>
      <tilted>0</tilted></_>
    <_>
      <rects>
        <_>
          7 13 16 32 -1.</_>
        <_>
          11 13 8 32 2.</_></rects>
      <tilted>0</tilted></_>
    <_>
      <rects>
        <_>
          11 45 7 4 -1.</_>
        <_>
          10 46 7 2 2.</_></rects>
      <tilted>1</tilted></_>
    <_>
      <rects>
        <_>
          12 0 8 12 -1.</_>
        <_>
          12 0 4 12 2.</_></rects>
      <tilted>1</tilted></_>
    <_>
      <rects>
        <_>
          12 11 6 42 -1.</_>
        <_>
          12 25 6 14 3.</_></rects>
      <tilted>0</tilted></_>
    <_>
      <rects>
        <_>
          13 10 16 43 -1.</_>
        <_>
          17 10 8 43 2.</_></rects>
      <tilted>0</tilted></_>
    <_>
      <rects>
        <_>
          14 15 16 29 -1.</_>
        <_>
          18 15 8 29 2.</_></rects>
      <tilted>0</tilted></_>
    <_>
      <rects>
        <_>
          16 2 2 15 -1.</_>
        <_>
          16 2 1 15 2.</_></rects>
      <tilted>1</tilted></_>
    <_>
      <rects>
        <_>
          16 14 9 27 -1.</_>
        <_>
          16 23 9 9 3.</_></rects>
      <tilted>0</tilted></_>
    <_>
      <rects>
        <_>
          23 50 4 2 -1.</_>
        <_>
          24 51 2 2 2.</_></rects>
      <tilted>1</tilted></_>
    <_>
      <rects>
        <_>
          24 1 1 12 -1.</_>
        <_>
          24 1 1 6 2.</_></rects>
      <tilted>1</tilted></_>
    <_>
      <rects>
        <_>
          26 42 4 13 -1.</_>
        <_>
          26 42 2 13 2.</_></rects>
      <tilted>1</tilted></_></features></cascade>
</opencv_storage>
