<?xml version="1.0"?>
<opencv_storage>
<cascade>
  <stageType>BOOST</stageType>
  <featureType>LBP</featureType>
  <height>12</height>
  <width>6</width>
  <stageParams>
    <boostType>GAB</boostType>
    <minHitRate>9.9500000476837158e-01</minHitRate>
    <maxFalseAlarm>5.0000000000000000e-01</maxFalseAlarm>
    <weightTrimRate>9.4999999999999996e-01</weightTrimRate>
    <maxDepth>1</maxDepth>
    <maxWeakCount>100</maxWeakCount></stageParams>
  <featureParams>
    <maxCatCount>256</maxCatCount>
    <featSize>1</featSize></featureParams>
  <stageNum>8</stageNum>
  <stages>
    <!-- stage 0 -->
    <_>
      <maxWeakCount>1</maxWeakCount>
      <stageThreshold>9.5206969976425171e-01</stageThreshold>
      <weakClassifiers>
        <_>
          <internalNodes>
            0 -1 1 -11011585 -6836089 1099006943 -541622113 -623977473
            512688523 -31458305 -17425</internalNodes>
          <leafValues>
            -9.9596369266510010e-01 9.5206969976425171e-01</leafValues></_></weakClassifiers></_>
    <!-- stage 1 -->
    <_>
      <maxWeakCount>2</maxWeakCount>
      <stageThreshold>-1.0276249796152115e-01</stageThreshold>
      <weakClassifiers>
        <_>
          <internalNodes>
            0 -1 11 -134218785 -134748097 -1056599801 -157822533
            -263198285 -695615275 -238952309 -85986613</internalNodes>
          <leafValues>
            -9.8588711023330688e-01 9.3449783325195313e-01</leafValues></_>
        <_>
          <internalNodes>
            0 -1 5 -146279937 -239623689 1493376029 -36715085 -121324581
            -132545909 -53769309 -3153701</internalNodes>
          <leafValues>
            -9.9800693988800049e-01 8.8312458992004395e-01</leafValues></_></weakClassifiers></_>
    <!-- stage 2 -->
    <_>
      <maxWeakCount>2</maxWeakCount>
      <stageThreshold>-6.6077440977096558e-02</stageThreshold>
      <weakClassifiers>
        <_>
          <internalNodes>
            0 -1 0 -10485761 -67108865 -1030645505 -525317 -174328321
            -19678481 -15739913 -1059081</internalNodes>
          <leafValues>
            -9.9187815189361572e-01 9.1827958822250366e-01</leafValues></_>
        <_>
          <internalNodes>
            0 -1 12 2013263743 -187718657 -553649697 -186646785
            -335564009 -2388009 -790597 -1794</internalNodes>
          <leafValues>
            -9.8435699939727783e-01 9.3430358171463013e-01</leafValues></_></weakClassifiers></_>
    <!-- stage 3 -->
    <_>
      <maxWeakCount>3</maxWeakCount>
      <stageThreshold>-1.0501942634582520e+00</stageThreshold>
      <weakClassifiers>
        <_>
          <internalNodes>
            0 -1 8 -749208641 -175048869 1078392191 -24526755 -16449
            -75112320 -68441605 -1048657</internalNodes>
          <leafValues>
            -9.6576035022735596e-01 8.9496719837188721e-01</leafValues></_>
        <_>
          <internalNodes>
            0 -1 7 -536886273 -48247809 206546711 -35810047 -271602802
            -68640068 -540356659 -528689</internalNodes>
          <leafValues>
            -9.2419332265853882e-01 8.3568698167800903e-01</leafValues></_>
        <_>
          <internalNodes>
            0 -1 3 1436250463 2044421119 -47997479 -2367055 2088835517
            -5717354 -1080971384 -4465957</internalNodes>
          <leafValues>
            -9.2815005779266357e-01 8.3975934982299805e-01</leafValues></_></weakClassifiers></_>
    <!-- stage 4 -->
    <_>
      <maxWeakCount>2</maxWeakCount>
      <stageThreshold>-1.7238506674766541e-01</stageThreshold>
      <weakClassifiers>
        <_>
          <internalNodes>
            0 -1 6 -33566721 -241198627 -511465779 -339611151 -577654785
            -393483265 1536248735 -5121</internalNodes>
          <leafValues>
            -9.8128896951675415e-01 8.0737704038619995e-01</leafValues></_>
        <_>
          <internalNodes>
            0 -1 7 -605028417 -2627709 -417315 -206178627 -741409908
            -203300729 -606671923 -265229</internalNodes>
          <leafValues>
            -9.6420645713806152e-01 8.0890393257141113e-01</leafValues></_></weakClassifiers></_>
    <!-- stage 5 -->
    <_>
      <maxWeakCount>1</maxWeakCount>
      <stageThreshold>7.0075756311416626e-01</stageThreshold>
      <weakClassifiers>
        <_>
          <internalNodes>
            0 -1 2 -639631393 -688586531 -676986933 -8973357 -68173893
            -928076558 -473127033 -70539077</internalNodes>
          <leafValues>
            -9.9783080816268921e-01 7.0075756311416626e-01</leafValues></_></weakClassifiers></_>
    <!-- stage 6 -->
    <_>
      <maxWeakCount>2</maxWeakCount>
      <stageThreshold>-2.2131203114986420e-01</stageThreshold>
      <weakClassifiers>
        <_>
          <internalNodes>
            0 -1 13 -3154945 1006152159 -1920694817 -604242861
            -649272834 2046525572 -502535265 -4222229</internalNodes>
          <leafValues>
            -9.3595039844512939e-01 7.3858922719955444e-01</leafValues></_>
        <_>
          <internalNodes>
            0 -1 10 -256376929 -151308145 -1318483105 -44318605
            -24669445 -89935469 -77350721 -121910305</internalNodes>
          <leafValues>
            -9.1319173574447632e-01 7.1463841199874878e-01</leafValues></_></weakClassifiers></_>
    <!-- stage 7 -->
    <_>
      <maxWeakCount>2</maxWeakCount>
      <stageThreshold>-2.2744867205619812e-01</stageThreshold>
      <weakClassifiers>
        <_>
          <internalNodes>
            0 -1 9 -605046785 -476196129 -556979809 -138113059
            -605161529 -288841331 -556729894 -102569269</internalNodes>
          <leafValues>
            -9.2715919017791748e-01 6.9734150171279907e-01</leafValues></_>
        <_>
          <internalNodes>
            0 -1 4 -604115041 -977200385 1624361311 -108344605
            -1685530145 -926316401 -1194751061 -104858953</internalNodes>
          <leafValues>
            -9.0648388862609863e-01 6.9971054792404175e-01</leafValues></_></weakClassifiers></_></stages>
  <features>
    <_>
      <rect>
        0 2 1 2</rect></_>
    <_>
      <rect>
        0 3 2 3</rect></_>
    <_>
      <rect>
        0 4 1 1</rect></_>
    <_>
      <rect>
        0 8 2 1</rect></_>
    <_>
      <rect>
        1 0 1 2</rect></_>
    <_>
      <rect>
        1 2 1 1</rect></_>
    <_>
      <rect>
        1 2 1 2</rect></_>
    <_>
      <rect>
        1 3 1 2</rect></_>
    <_>
      <rect>
        1 3 1 3</rect></_>
    <_>
      <rect>
        1 6 1 2</rect></_>
    <_>
      <rect>
        3 0 1 1</rect></_>
    <_>
      <rect>
        3 0 1 3</rect></_>
    <_>
      <rect>
        3 3 1 2</rect></_>
    <_>
      <rect>
        3 9 1 1</rect></_></features></cascade>
</opencv_storage>
