<?xml version="1.0"?>
<opencv_storage>
<cascade>
  <stageType>BOOST</stageType>
  <featureType>HAAR</featureType>
  <height>48</height>
  <width>24</width>
  <stageParams>
    <boostType>GAB</boostType>
    <minHitRate>9.9500000476837158e-01</minHitRate>
    <maxFalseAlarm>5.0000000000000000e-01</maxFalseAlarm>
    <weightTrimRate>9.4999999999999996e-01</weightTrimRate>
    <maxDepth>1</maxDepth>
    <maxWeakCount>100</maxWeakCount></stageParams>
  <featureParams>
    <maxCatCount>0</maxCatCount>
    <featSize>1</featSize>
    <mode>ALL</mode></featureParams>
  <stageNum>7</stageNum>
  <stages>
    <!-- stage 0 -->
    <_>
      <maxWeakCount>1</maxWeakCount>
      <stageThreshold>1.</stageThreshold>
      <weakClassifiers>
        <_>
          <internalNodes>
            0 -1 9 -2.2495692595839500e-02</internalNodes>
          <leafValues>
            1. -1.</leafValues></_></weakClassifiers></_>
    <!-- stage 1 -->
    <_>
      <maxWeakCount>1</maxWeakCount>
      <stageThreshold>1.</stageThreshold>
      <weakClassifiers>
        <_>
          <internalNodes>
            0 -1 4 -1.2656912207603455e-01</internalNodes>
          <leafValues>
            1. -1.</leafValues></_></weakClassifiers></_>
    <!-- stage 2 -->
    <_>
      <maxWeakCount>1</maxWeakCount>
      <stageThreshold>9.2307692766189575e-01</stageThreshold>
      <weakClassifiers>
        <_>
          <internalNodes>
            0 -1 5 4.3129146099090576e-02</internalNodes>
          <leafValues>
            -1. 9.2307692766189575e-01</leafValues></_></weakClassifiers></_>
    <!-- stage 3 -->
    <_>
      <maxWeakCount>2</maxWeakCount>
      <stageThreshold>-8.9847244322299957e-02</stageThreshold>
      <weakClassifiers>
        <_>
          <internalNodes>
            0 -1 2 -2.8458036482334137e-02</internalNodes>
          <leafValues>
            7.4545454978942871e-01 -9.4666665792465210e-01</leafValues></_>
        <_>
          <internalNodes>
            0 -1 6 -1.0919056832790375e-02</internalNodes>
          <leafValues>
            9.3769305944442749e-01 -8.3530181646347046e-01</leafValues></_></weakClassifiers></_>
    <!-- stage 4 -->
    <_>
      <maxWeakCount>2</maxWeakCount>
      <stageThreshold>-2.5447252392768860e-01</stageThreshold>
      <weakClassifiers>
        <_>
          <internalNodes>
            0 -1 7 -4.5614324510097504e-02</internalNodes>
          <leafValues>
            8.4313726425170898e-01 -9.2405062913894653e-01</leafValues></_>
        <_>
          <internalNodes>
            0 -1 0 -4.0771442651748657e-01</internalNodes>
          <leafValues>
            6.6957813501358032e-01 -1.</leafValues></_></weakClassifiers></_>
    <!-- stage 5 -->
    <_>
      <maxWeakCount>2</maxWeakCount>
      <stageThreshold>-5.9250432997941971e-02</stageThreshold>
      <weakClassifiers>
        <_>
          <internalNodes>
            0 -1 1 -2.7669113129377365e-02</internalNodes>
          <leafValues>
            8.3333331346511841e-01 -8.5365855693817139e-01</leafValues></_>
        <_>
          <internalNodes>
            0 -1 8 -1.7888858914375305e-02</internalNodes>
          <leafValues>
            7.9440808296203613e-01 -8.3300244808197021e-01</leafValues></_></weakClassifiers></_>
    <!-- stage 6 -->
    <_>
      <maxWeakCount>2</maxWeakCount>
      <stageThreshold>-2.9410412907600403e-01</stageThreshold>
      <weakClassifiers>
        <_>
          <internalNodes>
            0 -1 3 -1.7303209751844406e-02</internalNodes>
          <leafValues>
            6.3333332538604736e-01 -9.7142857313156128e-01</leafValues></_>
        <_>
          <internalNodes>
            0 -1 10 7.3452986776828766e-02</internalNodes>
          <leafValues>
            -9.2743748426437378e-01 7.1251726150512695e-01</leafValues></_></weakClassifiers></_></stages>
  <features>
    <_>
      <rects>
        <_>
          0 3 24 38 -1.</_>
        <_>
          8 3 8 38 3.</_></rects>
      <tilted>0</tilted></_>
    <_>
      <rects>
        <_>
          4 2 12 4 -1.</_>
        <_>
          7 5 6 4 2.</_></rects>
      <tilted>1</tilted></_>
    <_>
      <rects>
        <_>
          4 30 16 3 -1.</_>
        <_>
          8 30 8 3 2.</_></rects>
      <tilted>0</tilted></_>
    <_>
      <rects>
        <_>
          6 36 18 12 -1.</_>
        <_>
          6 36 9 6 2.</_>
        <_>
          15 42 9 6 2.</_></rects>
      <tilted>0</tilted></_>
    <_>
      <rects>
        <_>
          7 4 15 26 -1.</_>
        <_>
          12 4 5 26 3.</_></rects>
      <tilted>0</tilted></_>
    <_>
      <rects>
        <_>
          7 6 5 28 -1.</_>
        <_>
          7 13 5 14 2.</_></rects>
      <tilted>0</tilted></_>
    <_>
      <rects>
        <_>
          10 7 1 8 -1.</_>
        <_>
          10 7 1 4 2.</_></rects>
      <tilted>1</tilted></_>
    <_>
      <rects>
        <_>
          11 29 9 10 -1.</_>
        <_>
          14 32 3 10 3.</_></rects>
      <tilted>1</tilted></_>
    <_>
      <rects>
        <_>
          13 35 5 8 -1.</_>
        <_>
          11 37 5 4 2.</_></rects>
      <tilted>1</tilted></_>
    <_>
      <rects>
        <_>
          15 0 4 14 -1.</_>
        <_>
          15 7 4 7 2.</_></rects>
      <tilted>0</tilted></_>
    <_>
      <rects>
        <_>
          15 8 6 24 -1.</_>
        <_>
          15 20 6 12 2.</_></rects>
      <tilted>0</tilted></_></features></cascade>
</opencv_storage>
