<?xml version="1.0"?>
<opencv_storage>
<cascade>
  <stageType>BOOST</stageType>
  <featureType>HAAR</featureType>
  <height>60</height>
  <width>30</width>
  <stageParams>
    <boostType>GAB</boostType>
    <minHitRate>9.9500000476837158e-01</minHitRate>
    <maxFalseAlarm>5.0000000000000000e-01</maxFalseAlarm>
    <weightTrimRate>9.4999999999999996e-01</weightTrimRate>
    <maxDepth>1</maxDepth>
    <maxWeakCount>100</maxWeakCount></stageParams>
  <featureParams>
    <maxCatCount>0</maxCatCount>
    <featSize>1</featSize>
    <mode>ALL</mode></featureParams>
  <stageNum>10</stageNum>
  <stages>
    <!-- stage 0 -->
    <_>
      <maxWeakCount>2</maxWeakCount>
      <stageThreshold>-7.5323276221752167e-02</stageThreshold>
      <weakClassifiers>
        <_>
          <internalNodes>
            0 -1 3 -4.3499998748302460e-02</internalNodes>
          <leafValues>
            9.8245614767074585e-01 -9.8406374454498291e-01</leafValues></_>
        <_>
          <internalNodes>
            0 -1 10 -5.0918292254209518e-02</internalNodes>
          <leafValues>
            9.0874046087265015e-01 -9.8411083221435547e-01</leafValues></_></weakClassifiers></_>
    <!-- stage 1 -->
    <_>
      <maxWeakCount>2</maxWeakCount>
      <stageThreshold>5.3561804816126823e-03</stageThreshold>
      <weakClassifiers>
        <_>
          <internalNodes>
            0 -1 18 -3.0960546806454659e-02</internalNodes>
          <leafValues>
            1. -9.5312500000000000e-01</leafValues></_>
        <_>
          <internalNodes>
            0 -1 8 -3.3951759338378906e-02</internalNodes>
          <leafValues>
            9.5848119258880615e-01 -9.7708642482757568e-01</leafValues></_></weakClassifiers></_>
    <!-- stage 2 -->
    <_>
      <maxWeakCount>3</maxWeakCount>
      <stageThreshold>-1.0858635902404785e+00</stageThreshold>
      <weakClassifiers>
        <_>
          <internalNodes>
            0 -1 25 -5.3037799894809723e-02</internalNodes>
          <leafValues>
            1. -9.2307692766189575e-01</leafValues></_>
        <_>
          <internalNodes>
            0 -1 5 -1.1879084259271622e-01</internalNodes>
          <leafValues>
            8.8717615604400635e-01 -9.2001849412918091e-01</leafValues></_>
        <_>
          <internalNodes>
            0 -1 20 -4.0999364107847214e-02</internalNodes>
          <leafValues>
            7.5723183155059814e-01 -9.9282443523406982e-01</leafValues></_></weakClassifiers></_>
    <!-- stage 3 -->
    <_>
      <maxWeakCount>3</maxWeakCount>
      <stageThreshold>-1.0661319494247437e+00</stageThreshold>
      <weakClassifiers>
        <_>
          <internalNodes>
            0 -1 23 -2.1955911070108414e-02</internalNodes>
          <leafValues>
            9.4690263271331787e-01 -9.6031743288040161e-01</leafValues></_>
        <_>
          <internalNodes>
            0 -1 24 -1.2213769555091858e-01</internalNodes>
          <leafValues>
            9.5545399188995361e-01 -8.9990156888961792e-01</leafValues></_>
        <_>
          <internalNodes>
            0 -1 4 -7.5228130444884300e-03</internalNodes>
          <leafValues>
            7.9408705234527588e-01 -9.3768435716629028e-01</leafValues></_></weakClassifiers></_>
    <!-- stage 4 -->
    <_>
      <maxWeakCount>3</maxWeakCount>
      <stageThreshold>-1.1164333820343018e+00</stageThreshold>
      <weakClassifiers>
        <_>
          <internalNodes>
            0 -1 17 -7.2144068777561188e-02</internalNodes>
          <leafValues>
            8.5000002384185791e-01 -9.6734696626663208e-01</leafValues></_>
        <_>
          <internalNodes>
            0 -1 12 -1.6240872442722321e-02</internalNodes>
          <leafValues>
            7.4817311763763428e-01 -9.0575343370437622e-01</leafValues></_>
        <_>
          <internalNodes>
            0 -1 15 3.4796826541423798e-02</internalNodes>
          <leafValues>
            -8.8536834716796875e-01 7.5666701793670654e-01</leafValues></_></weakClassifiers></_>
    <!-- stage 5 -->
    <_>
      <maxWeakCount>3</maxWeakCount>
      <stageThreshold>-1.0000414848327637e+00</stageThreshold>
      <weakClassifiers>
        <_>
          <internalNodes>
            0 -1 11 -5.9429099783301353e-03</internalNodes>
          <leafValues>
            8.4745764732360840e-01 -9.5141702890396118e-01</leafValues></_>
        <_>
          <internalNodes>
            0 -1 22 7.0321813225746155e-02</internalNodes>
          <leafValues>
            -9.3700194358825684e-01 7.5757122039794922e-01</leafValues></_>
        <_>
          <internalNodes>
            0 -1 2 -2.7733992785215378e-02</internalNodes>
          <leafValues>
            9.4153106212615967e-01 -8.0619573593139648e-01</leafValues></_></weakClassifiers></_>
    <!-- stage 6 -->
    <_>
      <maxWeakCount>3</maxWeakCount>
      <stageThreshold>-9.4265294075012207e-01</stageThreshold>
      <weakClassifiers>
        <_>
          <internalNodes>
            0 -1 26 1.2393141165375710e-02</internalNodes>
          <leafValues>
            -8.2706767320632935e-01 8.5858583450317383e-01</leafValues></_>
        <_>
          <internalNodes>
            0 -1 9 4.8271693289279938e-02</internalNodes>
          <leafValues>
            -8.6049902439117432e-01 7.6768440008163452e-01</leafValues></_>
        <_>
          <internalNodes>
            0 -1 21 -1.8556352704763412e-02</internalNodes>
          <leafValues>
            7.4491375684738159e-01 -8.8292092084884644e-01</leafValues></_></weakClassifiers></_>
    <!-- stage 7 -->
    <_>
      <maxWeakCount>3</maxWeakCount>
      <stageThreshold>-1.1069835424423218e+00</stageThreshold>
      <weakClassifiers>
        <_>
          <internalNodes>
            0 -1 27 -4.7129280865192413e-02</internalNodes>
          <leafValues>
            6.5625000000000000e-01 -9.2405062913894653e-01</leafValues></_>
        <_>
          <internalNodes>
            0 -1 16 6.6554754972457886e-02</internalNodes>
          <leafValues>
            -8.0455154180526733e-01 7.0595562458038330e-01</leafValues></_>
        <_>
          <internalNodes>
            0 -1 6 -3.6360189318656921e-02</internalNodes>
          <leafValues>
            6.2161856889724731e-01 -9.6014648675918579e-01</leafValues></_></weakClassifiers></_>
    <!-- stage 8 -->
    <_>
      <maxWeakCount>3</maxWeakCount>
      <stageThreshold>-1.0359166860580444e+00</stageThreshold>
      <weakClassifiers>
        <_>
          <internalNodes>
            0 -1 19 -5.7270385324954987e-02</internalNodes>
          <leafValues>
            9.2592591047286987e-01 -9.1439688205718994e-01</leafValues></_>
        <_>
          <internalNodes>
            0 -1 14 2.9713029041886330e-02</internalNodes>
          <leafValues>
            -7.9946875572204590e-01 9.1877895593643188e-01</leafValues></_>
        <_>
          <internalNodes>
            0 -1 13 -5.7890556752681732e-02</internalNodes>
          <leafValues>
            6.7794895172119141e-01 -9.8587888479232788e-01</leafValues></_></weakClassifiers></_>
    <!-- stage 9 -->
    <_>
      <maxWeakCount>3</maxWeakCount>
      <stageThreshold>-1.0657767057418823e+00</stageThreshold>
      <weakClassifiers>
        <_>
          <internalNodes>
            0 -1 7 -3.4288935363292694e-02</internalNodes>
          <leafValues>
            9.6363633871078491e-01 -9.4509804248809814e-01</leafValues></_>
        <_>
          <internalNodes>
            0 -1 0 -9.8301894962787628e-02</internalNodes>
          <leafValues>
            9.8549735546112061e-01 -8.8798213005065918e-01</leafValues></_>
        <_>
          <internalNodes>
            0 -1 1 -5.0372645258903503e-02</internalNodes>
          <leafValues>
            7.6730346679687500e-01 -9.4567054510116577e-01</leafValues></_></weakClassifiers></_></stages>
  <features>
    <_>
      <rects>
        <_>
          0 25 28 8 -1.</_>
        <_>
          7 25 14 8 2.</_></rects>
      <tilted>0</tilted></_>
    <_>
      <rects>
        <_>
          0 47 27 9 -1.</_>
        <_>
          9 47 9 9 3.</_></rects>
      <tilted>0</tilted></_>
    <_>
      <rects>
        <_>
          1 13 8 10 -1.</_>
        <_>
          5 13 4 10 2.</_></rects>
      <tilted>0</tilted></_>
    <_>
      <rects>
        <_>
          1 25 28 4 -1.</_>
        <_>
          8 25 14 4 2.</_></rects>
      <tilted>0</tilted></_>
    <_>
      <rects>
        <_>
          2 10 24 1 -1.</_>
        <_>
          8 10 12 1 2.</_></rects>
      <tilted>0</tilted></_>
    <_>
      <rects>
        <_>
          2 13 15 42 -1.</_>
        <_>
          7 13 5 42 3.</_></rects>
      <tilted>0</tilted></_>
    <_>
      <rects>
        <_>
          3 27 8 32 -1.</_>
        <_>
          3 35 8 16 2.</_></rects>
      <tilted>0</tilted></_>
    <_>
      <rects>
        <_>
          3 37 20 3 -1.</_>
        <_>
          8 42 10 3 2.</_></rects>
      <tilted>1</tilted></_>
    <_>
      <rects>
        <_>
          6 40 13 6 -1.</_>
        <_>
          6 40 13 3 2.</_></rects>
      <tilted>1</tilted></_>
    <_>
      <rects>
        <_>
          9 1 8 9 -1.</_>
        <_>
          9 1 4 9 2.</_></rects>
      <tilted>1</tilted></_>
    <_>
      <rects>
        <_>
          9 2 13 18 -1.</_>
        <_>
          9 8 13 6 3.</_></rects>
      <tilted>0</tilted></_>
    <_>
      <rects>
        <_>
          9 17 4 14 -1.</_>
        <_>
          9 17 2 7 2.</_>
        <_>
          11 24 2 7 2.</_></rects>
      <tilted>0</tilted></_>
    <_>
      <rects>
        <_>
          10 2 20 1 -1.</_>
        <_>
          15 7 10 1 2.</_></rects>
      <tilted>1</tilted></_>
    <_>
      <rects>
        <_>
          10 2 8 48 -1.</_>
        <_>
          10 18 8 16 3.</_></rects>
      <tilted>0</tilted></_>
    <_>
      <rects>
        <_>
          10 18 16 10 -1.</_>
        <_>
          10 18 8 5 2.</_>
        <_>
          18 23 8 5 2.</_></rects>
      <tilted>0</tilted></_>
    <_>
      <rects>
        <_>
          10 32 6 18 -1.</_>
        <_>
          12 38 2 6 9.</_></rects>
      <tilted>0</tilted></_>
    <_>
      <rects>
        <_>
          12 10 6 18 -1.</_>
        <_>
          14 16 2 6 9.</_></rects>
      <tilted>0</tilted></_>
    <_>
      <rects>
        <_>
          14 15 14 12 -1.</_>
        <_>
          11 18 14 6 2.</_></rects>
      <tilted>1</tilted></_>
    <_>
      <rects>
        <_>
          14 34 16 7 -1.</_>
        <_>
          18 34 8 7 2.</_></rects>
      <tilted>0</tilted></_>
    <_>
      <rects>
        <_>
          15 15 12 24 -1.</_>
        <_>
          18 15 6 24 2.</_></rects>
      <tilted>0</tilted></_>
    <_>
      <rects>
        <_>
          15 22 14 11 -1.</_>
        <_>
          15 22 7 11 2.</_></rects>
      <tilted>1</tilted></_>
    <_>
      <rects>
        <_>
          16 3 11 6 -1.</_>
        <_>
          14 5 11 2 3.</_></rects>
      <tilted>1</tilted></_>
    <_>
      <rects>
        <_>
          16 23 14 13 -1.</_>
        <_>
          23 23 7 13 2.</_></rects>
      <tilted>0</tilted></_>
    <_>
      <rects>
        <_>
          18 5 10 8 -1.</_>
        <_>
          16 7 10 4 2.</_></rects>
      <tilted>1</tilted></_>
    <_>
      <rects>
        <_>
          18 14 12 17 -1.</_>
        <_>
          22 18 4 17 3.</_></rects>
      <tilted>1</tilted></_>
    <_>
      <rects>
        <_>
          18 38 12 8 -1.</_>
        <_>
          21 41 6 8 2.</_></rects>
      <tilted>1</tilted></_>
    <_>
      <rects>
        <_>
          20 40 4 5 -1.</_>
        <_>
          20 40 2 5 2.</_></rects>
      <tilted>1</tilted></_>
    <_>
      <rects>
        <_>
          22 43 8 9 -1.</_>
        <_>
          22 43 4 9 2.</_></rects>
      <tilted>1</tilted></_></features></cascade>
</opencv_storage>
